genomestart  133
trait 1 0.1 0.0 0.0 0.0 0.1769072720881283 0.0 0.0 0.009807698149840172 
trait 2 0.12039630576913012 0.0 0.030235510007955223 0.007545970401882822 0.0 4.01496957092212E-4 0.0 0.001980305009069972 
node 1 1 1 1
node 2 1 1 1
node 3 1 1 1
node 4 1 1 1
node 5 1 1 1
node 6 1 1 1
node 7 1 1 1
node 8 1 1 1
node 9 1 1 1
node 10 1 1 1
node 11 1 1 1
node 12 1 1 1
node 13 1 1 1
node 14 1 1 1
node 15 1 1 1
node 16 1 1 1
node 17 1 1 1
node 18 1 1 1
node 19 1 1 3
node 20 1 0 2
node 21 1 0 2
node 22 1 0 2
node 23 1 0 2
node 24 1 0 2
node 25 1 0 2
node 182 1 0 0
gene  1 19 20 -7.456070594259416 0 1.0 -7.456070594259416 1
gene  1 19 21 -1.000919974665781 0 1.0 -1.000919974665781 1
gene  1 19 22 -1.9216260488181294 0 1.0 -1.9216260488181294 1
gene  1 19 23 2.302030487139276 0 1.0 2.302030487139276 1
gene  1 19 24 -0.20474258891180752 0 1.0 -0.20474258891180752 1
gene  1 19 25 2.3560969073636926 0 1.0 2.3560969073636926 1
gene  2 16 20 -0.3217584215808254 0 35.0 -0.3217584215808254 1
gene  1 16 21 -7.018314899472012 0 36.0 -7.018314899472012 1
gene  2 16 22 1.2914873899458748 0 37.0 1.2914873899458748 1
gene  2 16 23 -5.169588145930042 0 38.0 -5.169588145930042 1
gene  1 16 24 -1.8176167832969292 0 39.0 -1.8176167832969292 1
gene  1 16 25 -4.677601731271408 0 40.0 -4.677601731271408 1
gene  2 5 20 -2.287440359385868 0 86.0 -2.287440359385868 1
gene  2 5 21 -3.9935766347928214 0 87.0 -3.9935766347928214 1
gene  2 5 22 3.817834424252988 0 88.0 3.817834424252988 1
gene  2 5 23 -3.638518724105598 0 89.0 -3.638518724105598 1
gene  1 5 24 0.06453626728394202 0 90.0 0.06453626728394202 1
gene  1 5 25 -2.1783312650170283 0 91.0 -2.1783312650170283 1
gene  2 17 20 -10.307685637655364 0 261.0 -10.307685637655364 1
gene  2 17 21 9.018244774806787 0 262.0 9.018244774806787 1
gene  1 17 22 -10.450679286228837 0 263.0 -10.450679286228837 1
gene  2 17 23 7.017636517792194 0 264.0 7.017636517792194 1
gene  1 17 24 6.92246529723679 0 265.0 6.92246529723679 1
gene  1 17 25 4.510439721266638 0 266.0 4.510439721266638 1
gene  2 13 20 3.3111993012983816 0 418.0 3.3111993012983816 1
gene  1 13 21 -0.17820088779916254 0 419.0 -0.17820088779916254 1
gene  1 13 22 1.4782704889016465 0 411.0 1.4782704889016465 1
gene  2 13 23 1.7867710249778843 0 420.0 1.7867710249778843 1
gene  2 13 24 -2.457760265284165 0 421.0 -2.457760265284165 1
gene  2 13 25 -2.8092469929764237 0 422.0 -2.8092469929764237 1
gene  2 1 20 0.3312405794360678 0 553.0 0.3312405794360678 1
gene  1 1 21 -0.07075532755570779 0 554.0 -0.07075532755570779 1
gene  2 1 22 -2.247236719624449 0 555.0 -2.247236719624449 1
gene  1 1 23 -8.680749468448067 0 556.0 -8.680749468448067 1
gene  2 1 24 8.108399191384734 0 557.0 8.108399191384734 1
gene  1 1 25 -0.28347041869983336 0 558.0 -0.28347041869983336 0
gene  2 3 20 -7.639483051266688 0 693.0 -7.639483051266688 1
gene  1 3 21 -3.0814667116228955 0 694.0 -3.0814667116228955 1
gene  1 3 22 -0.576204865663833 0 695.0 -0.576204865663833 1
gene  2 3 23 -2.13411457822032 0 696.0 -2.13411457822032 1
gene  1 3 24 -1.306255080017594 0 697.0 -1.306255080017594 1
gene  1 3 25 -6.833844178030701 0 698.0 -6.833844178030701 1
gene  1 2 20 5.2542853385112664 0 1575.0 5.2542853385112664 1
gene  2 2 21 0.61934590037217 0 1576.0 0.61934590037217 1
gene  1 2 22 -5.700323353714183 0 1577.0 -5.700323353714183 1
gene  1 2 23 0.9515307563296571 0 1578.0 0.9515307563296571 1
gene  2 2 24 -4.574278506631613 0 1579.0 -4.574278506631613 1
gene  1 2 25 8.38467512130721 0 1580.0 8.38467512130721 1
gene  2 4 20 2.470902815282808 0 1710.0 2.470902815282808 1
gene  2 4 21 -3.360129069179071 0 1711.0 -3.360129069179071 1
gene  1 4 22 0.07951419646770708 0 1712.0 0.07951419646770708 1
gene  1 4 23 -7.633593501563918 0 1713.0 -7.633593501563918 1
gene  2 4 24 1.472738421790456 0 1714.0 1.472738421790456 1
gene  2 4 25 6.775349541951666 0 1715.0 6.775349541951666 1
gene  2 11 22 -3.4925748723381957 0 1800.0 0.0 1
gene  1 1 182 1.0 0 1953.0 0.0 1
gene  1 182 25 -0.28347041869983336 0 1954.0 0.0 1
gene  1 15 182 -3.0485934133727666 0 2017.0 -3.0485934133727666 1
gene  1 20 22 2.923075436815923 0 2069.0 2.923075436815923 1
genomeend 133
